1561882.729225
-13057327.024073
69783484.250529
-168318322.321213
-31228545.174321
669418095.693741
-446612170.823852
-1018047637.313273
1244234947.823079
93140924.270500
-871085460.217334
-810297605.270837
6175535061.778050
-8507610414.559914
5913209654.163095
-6955856897.956230
-1041969281.138371
24053139357.008751
-26726885500.379539
2925963932.930466
9340178859.927891
-8537822540.193211
8602235738.197258
9877455652.067299
-34078975449.526222
27624459564.484734
-11480009718.738922
-4014284840.234848
22090385336.575005
17449104875.827812
-49426870831.986710
-29805448983.816109
64684477025.688049
-5557799186.824192
-131363867710.986923
544723173959.834106
-914773706121.293335
690979531441.694336
-212394781585.930420
32348004730.982037
-52150348256.962273
78522654000.202209
-126484771825.907043
108106748367.275101
6868707812.103806
-20616289887.166862
-41701803925.163467
-8147124013.944534
42360940117.616974
-92349050453.322311
343094841688.339844
-491954617869.516785
306044707525.750427
-43427563796.176147
-110534865502.391159
179659490104.857300
-116232155577.274200
-22141343443.066544
107544662935.827606
-183660864902.385986
132726504969.014633
212395530224.926270
-392653631338.605957
132763416620.979782
-49991998394.694855
200088583725.073456
-138286143299.701630
-24966169255.737259
-101327130091.478256
347986460939.972717
-188556929301.944885
102906716005.628143
-124282263742.710938
-194761426023.702881
213726284244.018921
-53961683576.412552
277335173836.863586
-369823076697.238953
27148341076.233780
297123528331.055359
-317652803465.798706
174688186749.593933
-100812295960.169800
130469883675.891663
15031329178.874451
-321279863735.012024
360687182875.804138
-167371224177.565247
152512050327.510010
-380895659138.888306
580815152827.382568
-464865848127.849487
163486280800.618286
-46629643137.048752
14065998875.304756
45032491781.492416
86019619758.795975
-224599504325.949951
129811615299.140747
-117366803360.882477
499177775935.973999
-994110199398.914062
916957821645.880859
-280947851418.167419
-87757591315.004883
-102107984006.187378
359389763540.988281
-296346951947.335144
99189856347.510513
-35886862769.706284
60330963321.974815
-105655204485.329346
69783998465.103363
-106282644494.312256
331861467499.881042
-304519522365.525269
127133436017.662735
-176170507623.817871
88100771159.716064
203952434180.097839
-105622851688.161667
-128472915961.565094
130691397227.035416
-339080853403.552246
279772286592.605164
97903420529.677826
138775577621.842682
-558686330975.656006
501043640326.259338
-372394994798.279053
212020812058.148621
91619704960.702240
-96599485486.363770
-29424919936.832916
99623427383.071182
-87387359606.510788
-142393628959.634277
89030405033.036591
148253709648.166992
-65977812837.119598
-77902751739.882843
47145767858.981964
17637753037.992420
-1365299130.788982
-27314126808.839462
35853231759.303055
-55408942499.392746
-8830358932.537048
72925290725.208649
-39721917401.516502
30353652857.542557
58886573666.698318
-105875810258.135010
-83327352149.993469
87292613265.329895
83940700531.604126
-35790056555.805786
-73405178718.786743
77985820599.534698
-18187348141.009010
19689634410.411339
-71540270394.933670
16321073441.240913
-10218233178.256554
67977608790.913078
67537802806.341095
-449724889412.337646
548102752830.154053
686061646311.419434
-2849912150631.328125
3608365933502.716797
-2176748222410.257324
527247613485.670593
10894992756.124725
-11701698129.072174
1293097043.464127
39203291139.213066
-33735518661.414223
-76488004366.876465
100022038278.273224
8326731563.106247
-30840213271.939148
2523489788.767710
-39483821050.305252
80711715715.245987
-99327428624.084045
-33832215199.777969
241839936362.766388
-215766043841.432587
30071137355.482647
46688079972.238800
1725254735.527794
-68223127015.623688
129191243611.453613
-109031355576.530167
-16191207132.270767
129943410190.006119
-145076420834.719879
57417883574.185127
22327937850.843018
-50222599595.942291
87362731881.782532
-115545611270.464828
115817501111.996582
-3230425257.398624
-406101440973.262634
861360449205.693359
-775980127272.166260
317425509684.354431
-127178534170.891815
91455180153.743866
9310051573.042534
13322701864.418968
-77622952942.123016
117409195997.664246
-157004751427.705688
136070555341.835724
-114470362671.023651
16058719179.741241
145368458247.625214
312736910483.533142
-2181992529901.670654
4623635361553.265625
-5075935445801.183594
2904748971883.580078
-702046658938.044678
38475232386.274284
-43296413746.822350
-1908359450.428955
36765467304.471649
16363579504.346409
-138801113566.290070
422645896161.029053
-814587888092.740967
916398136335.409912
-574101056143.717529
147938972816.758362
41274221448.073792
-46079695089.879318
45281196411.151398
-49166676654.534149
41375604747.633980
-75594558923.294983
22354894178.219315
38305759110.857452
62501905269.416275
-76094852085.933533
-86274745735.333572
199165311346.785980
-189705256334.820435
117277166180.721344
-41708347841.456650
39876207925.444656
-60974374440.552948
38840277065.910576
-119964385093.225830
346819041261.029907
-476812453547.160767
321515230603.278564
-63992154227.843201
-6936290890.891872
-60896905865.451050
52450537823.283905
29533415102.710754
-58996024916.609894
9632769940.028320
59911087836.667633
-40584155840.223999
-59773983322.368034
19061362152.483490
186792362721.645142
-234448446331.360474
116561557029.589935
-30163672698.821594
-85699352378.836151
103883208628.047821
29582825995.893738
-54994036998.744934
-30939771845.916550
53126526365.181641
194031483.435699
39826948189.065849
-97970768031.519379
23045919918.470932
-98486354274.332764
196486860458.684082
-40210790602.125084
-246590840.236389
-35541459772.957939
-29545129567.832779
4304217414.052492
128319257306.531342
-691927384169.144775
1466274818189.106934
-1370106712059.842773
519224481398.949707
49483179947.604736
-63481207838.585197
-69454463655.685425
82274215904.872421
-122804042838.996231
230419689243.859253
-190236717739.565979
15570088014.483185
94178680735.767517
-279982972529.698853
543171094278.146667
-381299877163.218811
27083597366.431274
13100690050.761246
-3142144604.623924
69729587770.369766
-126490151223.097641
113445699959.615509
110476890836.034058
-183902562626.612152
-159575962677.341370
449620759690.170166
-462842123651.422241
277655876308.618469
-48174922667.390076
225170105417.226166
-334620590568.738220
-237548400917.068878
370686060891.264465
84522385690.376450
-21624080697.292206
-44145337724.603729
-68578377256.793274
-128975192692.441925
58017695431.401314
439458783257.296997
-697793343166.137939
432922861780.106934
-18030452655.624130
-115665790905.289062
66433658046.388550
-92379723655.447540
101944192252.163849
-138903386355.472809
215778368623.018555
-55045799606.094925
-83128014310.519547
-146387898863.076691
232839816135.512939
61072895119.729828
406413853869.205200
-1722996830719.003174
2000196782572.351807
-887805187047.500000
-122847362247.361374
241935147798.030701
43928665681.187576
9024803314.426022
-227832699930.422119
162407546276.328613
7211668688.992664
-27229333740.806816
-33220379953.759621
36110567018.914703
158424364470.728241
-1096817487706.172607
4286096268594.508301
-10169424371856.185547
13791830346529.871094
-7859287204659.723633
-5478472902199.310547
13860561193734.884766
-11156445441122.488281
4338707041033.653809
-672911760458.481689
-36203846887.069580
76426104875.757034
-99046696410.524139
76975987224.685150
-44400052096.439560
84827367104.967346
-67296810602.205894
-299170651853.804688
448502089185.466797
452181381930.048279
-1009280017174.691406
-247127410010.183655
1187597225846.941895
-181938073785.353088
-664111481670.731201
331359423618.444885
-106647832860.894714
126521260421.861511
-27320682945.946854
203446191936.776703
-764714709672.107178
1211238943968.600098
-1067063880659.767334
507161933973.336060
-87254638329.043259
-6962323720.238985
-6960159525.791180
-5105486045.327110
6658647245.974929
