11608630.249505
-44981323.135572
11284471.645959
29561402.817493
292426352.279011
-168847844.348942
-1232063328.101197
1060915656.464222
443312677.669636
1986196406.216662
-5523298416.951715
9170952023.921152
-15820604688.673065
16144846303.943350
-22055489803.069366
45617864873.815674
-48296598043.495148
29792212899.687038
-23762966989.896378
9515621534.050886
-2151469072.456886
7166397377.944641
53896008757.478088
-130085038717.592438
108638770465.789368
-29714272424.164829
-62633063948.942505
73587287313.108521
48964505249.711067
28861015653.352921
-243301428031.860504
81387419020.915344
157807718480.373230
-494955979479.765869
1548142180215.749023
-2245866033245.586914
1472296260072.579102
-432023447288.891113
242375755339.746979
-366207588175.226074
391908180607.734131
-538327079178.095337
513842285379.463135
39626632105.559128
-431503952187.143433
315195163553.939697
-411446647853.724915
424957886683.921997
-364100173010.600037
1313074334649.767334
-2143326462280.557617
1347112287894.509766
-96496652623.653412
-420807300724.384338
517483220182.423828
-208557174354.920959
-563722109457.656006
1098339430940.865723
-1137534592204.803711
636305952584.516357
656347123794.588745
-1116914982313.696777
-14806650738.578918
265893039596.548553
228350878437.820679
255262866435.739868
-940626137024.613647
775115530870.730591
48081283524.231567
-482907804859.214722
1271090538525.701660
-1958077573534.921875
642035922639.351074
861992726268.270996
-1929150624061.184082
2648515372345.158203
-931844488232.711304
-850645077533.638428
-370169568347.075928
1834020387431.090576
-1215180448418.955322
-163246392294.307922
538257307183.313049
871404230063.227051
-2434880286986.123047
1999490127858.641602
-776550253587.900879
737855323381.475708
-1110099447474.691650
1018170297806.044067
-752592791599.802734
343363495172.331543
-65519557699.768127
-93383145033.915527
231079401468.172607
-89362429833.042831
338987755499.072876
-746411041019.796631
188404298419.546631
1100865542301.277344
-2477461003632.664551
2466869915305.532715
-724392510788.965576
-180196564181.223541
-148536366934.601135
-11798746709.365723
542408344067.454590
-504634631312.115662
62036189047.033730
-83223147451.076324
-13716935662.008850
204657859384.119751
335490377837.812744
-529035295053.395752
257702336617.957275
12384785869.126587
-294309335408.763855
-69569253645.395020
650008150970.370483
17377763118.007324
-860560799980.045532
212774217512.847137
-83182480298.617065
171228373545.678833
944692126423.063721
-420570599109.073608
-1918133410601.075684
2683220367566.680664
-1634795512901.619629
126757477227.117767
904087611784.703857
-5205531659.515137
-595739133392.448853
-399932552674.182373
534778183459.984497
-75053615109.251465
-726443343048.894287
1860800330159.387207
-1801781903032.073486
788611575748.018555
-191607201260.299255
150910494369.981476
-29663447680.076843
-151175543679.908936
269939105178.878082
-164055109109.798309
-195540702597.370514
-73112188386.153198
47407159047.334198
1282947137136.283447
-829015374456.583496
-1528493809437.829590
1283618179911.944336
591716162609.315186
-408719107572.497986
-582589047461.299561
454846090756.058838
-4044652230.711365
112016603016.539200
-189712487604.197632
-135944033971.473389
72347342534.062317
272777941133.385010
-251346875785.343628
699136530756.207520
-2892057274049.853027
5772739770899.706055
-5047609471999.288086
-681972962945.543945
5331849163142.378906
-4276798015879.327148
1192253753560.127686
-190087405155.405426
442648746347.538208
-466217807045.598389
202083101161.305206
209502116217.102234
-365538562322.860474
-43702158706.076965
362801646565.271118
-234854445960.374481
242203412371.215942
-342392617835.644653
228236153701.373749
-397092643387.781372
908120161114.012085
-1047511681415.690796
655284818597.141113
-376556860012.328064
371125157108.274048
-204876083137.817139
-121738773027.249802
265448609511.466827
145384982875.084412
-770263487941.255493
866854813833.734131
-444783544887.785156
69049806062.749084
140346488757.719727
-584185638154.661865
839106325997.898071
-789816908699.557861
915635133915.691772
-555392022265.961548
-473717709442.959106
1413354696603.796875
-1380100275455.523926
612106092602.593750
-565821445129.822510
533640738120.361755
-42310156668.096771
-318951130336.637695
1682584862007.369629
-2867120307200.012207
1967188886974.590576
-490507572826.391907
-73827509406.281250
-154621861414.069153
485427959196.292114
-905206669593.140869
1431255982961.004883
-581614094318.156006
-1114943267239.327148
1268459427667.569824
-450277081080.776855
112645310197.248581
-52571020284.955231
23388505573.645790
15137828461.793625
-347503524136.511719
1422137570428.097656
-3089516392762.575684
3992250589894.791504
-2984440753931.034668
1190133288115.452637
-316918763748.307190
144952652716.129395
-317686629112.812195
581373696535.198486
-32657049291.103241
-170021254200.181580
-614374537110.255859
194596419952.706360
411356295277.140686
505142961998.716309
-587396713693.354248
-494585991621.835571
722061547942.875732
-421886348063.397705
340805463634.934021
-41154151951.888580
-84219544688.015350
-195077855388.015076
125425952126.665588
-541871542833.010925
2065917808812.021484
-2819585486769.592285
1730144205078.413330
-252472521448.208282
-83683664369.960022
-268292679306.184784
46962961647.144417
459508665098.629089
-303163589414.085266
-308966765936.387817
667148136932.153809
-432542955988.410400
-131264872594.512390
177500315914.045105
657131547688.979370
-1078938409674.267578
608460348373.821045
-337166927830.790588
191621109879.818848
-848193460510.553223
2299307641597.803223
-2107364400369.558350
570905091531.710449
213156702257.505310
-238443603664.846436
418593862564.246399
-410492739317.296204
369250936369.439636
-1086207453787.919189
783086154720.613525
262859172248.936401
-59480874011.567902
232458938586.232727
-661236050768.691284
148106599727.664917
185658461285.429626
-1614884242027.039551
4072142221042.061523
-3859763981737.786133
1357587575328.652832
132166106209.125763
51674401790.818153
-701771950103.902588
797667722897.657104
-607669128746.108765
710702018964.389160
-689321186120.884766
156014306066.533630
-29452112476.433716
835794310611.562012
-1089151107395.404541
196703104909.164551
594355618780.583740
-377924479956.179199
-159853165036.776062
-49201908951.269104
244898203333.741119
-73634600099.596069
406333884394.937622
-381311567268.193115
-945340076717.333984
2264030389124.396484
-2373544234942.071289
1311636266124.482178
-398961094038.887817
1296762526932.271484
-1600704471410.808838
-1070228184431.000488
2041723854295.804932
377612816450.820435
-1309583473599.786133
857423202857.453003
-765030613192.907227
54137430034.403198
347352757779.383423
45224455291.260986
35655898967.879639
-531396168203.427856
581842347625.562378
-568472962031.378052
774251784902.445068
-660294553094.429688
103615911280.992310
180083299378.807220
155923513590.361816
-356870578277.245850
214410349105.972168
-58175484076.005051
50635376815.751648
-174260503238.482452
1629579410460.996338
-4908999834181.660156
5890224819347.705078
-2626928826318.026367
-608551497826.352295
812581686677.508057
166090221106.177399
276813754816.058777
-1138350116285.599121
545794039678.180298
206803365219.834229
95165797030.959961
-422956664998.037537
191365873167.959747
509964413957.531494
-1576979840568.249023
2509675751265.994629
-2867163998552.910156
1873105418867.142334
629303379446.885986
-2217922635361.362793
1074891203289.536377
654778368689.856689
-778341460797.752686
222940423243.227844
-35137899166.155212
-18429716588.992126
27858132745.964722
57338336360.035416
-117329777708.574341
80258754820.515167
48365660521.286499
-496739375795.651123
581239824720.304077
927835773000.007812
-1612895499256.480469
-892915987721.529053
2141916347924.945801
322139261385.985535
-1529263280097.800049
583466839539.424316
-709275191646.594482
650334393843.510010
348176810023.614380
132763916411.575348
-1800506307267.039307
2027947155347.866211
-501642243082.149292
-578317699437.180542
339872545700.952087
15668065773.090446
14776211208.927505
64696612883.394508
-194306116624.166656
97776587793.757568
